{"learner":{"attributes":{"scikit_learn":"{\"_estimator_type\": \"classifier\"}"},"feature_names":[],"feature_types":[],"gradient_booster":{"model":{"cats":{"enc":[],"feature_segments":[],"sorted_idx":[]},"gbtree_model_param":{"num_parallel_tree":"1","num_trees":"100"},"iteration_indptr":[0,1,2,3,4,5,6,7,8,9,10,11,12,13,14,15,16,17,18,19,20,21,22,23,24,25,26,27,28,29,30,31,32,33,34,35,36,37,38,39,40,41,42,43,44,45,46,47,48,49,50,51,52,53,54,55,56,57,58,59,60,61,62,63,64,65,66,67,68,69,70,71,72,73,74,75,76,77,78,79,80,81,82,83,84,85,86,87,88,89,90,91,92,93,94,95,96,97,98,99,100],"tree_info":[0,0,0,0,0,0,0,0,0,0,0,0,0,0,0,0,0,0,0,0,0,0,0,0,0,0,0,0,0,0,0,0,0,0,0,0,0,0,0,0,0,0,0,0,0,0,0,0,0,0,0,0,0,0,0,0,0,0,0,0,0,0,0,0,0,0,0,0,0,0,0,0,0,0,0,0,0,0,0,0,0,0,0,0,0,0,0,0,0,0,0,0,0,0,0,0,0,0,0,0],"trees":[{"base_weights":[-4.1412108E-2,-1.107668E0,8.038026E-2,5.0935764E-2,-8.144973E-2],"categories":[],"categories_nodes":[],"categories_segments":[],"categories_sizes":[],"default_left":[0,0,0,0,0],"id":0,"left_children":[1,3,-1,-1,-1],"loss_changes":[5.6962173E1,2.5078348E1,0E0,0E0,0E0],"parents":[2147483647,0,0,1,1],"right_children":[2,4,-1,-1,-1],"split_conditions":[-2.1448417E-1,-8.886815E-1,8.038026E-2,5.0935764E-2,-8.144973E-2],"split_indices":[1,5,0,0,0],"split_type":[0,0,0,0,0],"sum_hessian":[2.8371134E1,1.7628866E1,1.0742268E1,3.0953608E0,1.4533505E1],"tree_param":{"num_deleted":"0","num_feature":"7","num_nodes":"5","size_leaf_vector":"1"}},{"base_weights":[-8.952618E-2,-9.3727636E-1,7.122485E-2,-7.500752E-2,6.1463792E-2],"categories":[],"categories_nodes":[],"categories_segments":[],"categories_sizes":[],"default_left":[0,0,0,0,0],"id":1,"left_children":[1,3,-1,-1,-1],"loss_changes":[4.1782135E1,2.8981499E1,0E0,0E0,0E0],"parents":[2147483647,0,0,1,1],"right_children":[2,4,-1,-1,-1],"split_conditions":[-2.1448417E-1,1.6756917E0,7.122485E-2,-7.500752E-2,6.1463792E-2],"split_indices":[1,0,0,0,0],"split_type":[0,0,0,0,0],"sum_hessian":[2.8472483E1,1.8740788E1,9.731695E0,1.5364291E1,3.376496E0],"tree_param":{"num_deleted":"0","num_feature":"7","num_nodes":"5","size_leaf_vector":"1"}},{"base_weights":[-9.4505444E-2,-1.0093848E0,7.326181E-2,-7.5912565E-2,5.691386E-2],"categories":[],"categories_nodes":[],"categories_segments":[],"categories_sizes":[],"default_left":[0,0,0,0,0],"id":2,"left_children":[1,3,-1,-1,-1],"loss_changes":[4.60242E1,2.5539602E1,0E0,0E0,0E0],"parents":[2147483647,0,0,1,1],"right_children":[2,4,-1,-1,-1],"split_conditions":[-2.1448417E-1,1.6756917E0,7.326181E-2,-7.5912565E-2,5.691386E-2],"split_indices":[1,0,0,0,0],"split_type":[0,0,0,0,0],"sum_hessian":[2.8180079E1,1.820657E1,9.97351E0,1.5192902E1,3.0136673E0],"tree_param":{"num_deleted":"0","num_feature":"7","num_nodes":"5","size_leaf_vector":"1"}},{"base_weights":[1.9652603E-2,-8.25536E-1,7.1699105E-2,5.4121442E-2,-6.954553E-2],"categories":[],"categories_nodes":[],"categories_segments":[],"categories_sizes":[],"default_left":[0,0,0,0,0],"id":3,"left_children":[1,3,-1,-1,-1],"loss_changes":[4.0322613E1,2.5819405E1,0E0,0E0,0E0],"parents":[2147483647,0,0,1,1],"right_children":[2,4,-1,-1,-1],"split_conditions":[-1.24267854E-1,-8.886815E-1,7.1699105E-2,5.4121442E-2,-6.954553E-2],"split_indices":[1,5,0,0,0],"split_type":[0,0,0,0,0],"sum_hessian":[2.9751545E1,1.9143936E1,1.0607608E1,3.957964E0,1.5185973E1],"tree_param":{"num_deleted":"0","num_feature":"7","num_nodes":"5","size_leaf_vector":"1"}},{"base_weights":[1.8661898E-2,1.2403767E0,-8.180236E-1,7.2678216E-2,8.436005E-3,5.35311E-2,-7.1815275E-2],"categories":[],"categories_nodes":[],"categories_segments":[],"categories_sizes":[],"default_left":[0,0,0,0,0,0,0],"id":4,"left_children":[1,3,5,-1,-1,-1,-1],"loss_changes":[3.4663185E1,2.6558342E0,2.660933E1,0E0,0E0,0E0,0E0],"parents":[2147483647,0,0,1,1,2,2],"right_children":[2,4,6,-1,-1,-1,-1],"split_conditions":[1.2786375E-1,8.9189476E-1,-8.886815E-1,7.2678216E-2,8.436005E-3,5.35311E-2,-7.1815275E-2],"split_indices":[0,5,5,0,0,0,0],"split_type":[0,0,0,0,0,0,0],"sum_hessian":[2.9925411E1,1.1771654E1,1.8153759E1,9.223963E0,2.5476906E0,4.1163764E0,1.4037381E1],"tree_param":{"num_deleted":"0","num_feature":"7","num_nodes":"7","size_leaf_vector":"1"}},{"base_weights":[1.4188156E-2,1.255215E0,-8.0237454E-1,2.2794692E-2,6.978523E-2,-6.510111E-2,5.543051E-2],"categories":[],"categories_nodes":[],"categories_segments":[],"categories_sizes":[],"default_left":[0,0,0,0,0,0,0],"id":5,"left_children":[1,3,5,-1,-1,-1,-1],"loss_changes":[3.431456E1,2.354641E-1,2.240786E1,0E0,0E0,0E0,0E0],"parents":[2147483647,0,0,1,1,2,2],"right_children":[2,4,6,-1,-1,-1,-1],"split_conditions":[1.2786375E-1,-5.180813E-1,1.6756917E0,2.2794692E-2,6.978523E-2,-6.510111E-2,5.543051E-2],"split_indices":[0,6,0,0,0,0,0],"split_type":[0,0,0,0,0,0,0],"sum_hessian":[2.9873901E1,1.1429203E1,1.8444698E1,2.977673E0,8.4515295E0,1.5126928E1,3.3177705E0],"tree_param":{"num_deleted":"0","num_feature":"7","num_nodes":"7","size_leaf_vector":"1"}},{"base_weights":[3.48609E-2,-8.639084E-1,1.0724572E0,2.7664168E-2,-7.007461E-2,9.833292E-3,6.5103E-2],"categories":[],"categories_nodes":[],"categories_segments":[],"categories_sizes":[],"default_left":[0,0,0,0,0,0,0],"id":6,"left_children":[1,3,5,-1,-1,-1,-1],"loss_changes":[3.0285366E1,1.4841396E1,2.5128899E0,0E0,0E0,0E0,0E0],"parents":[2147483647,0,0,1,1,2,2],"right_children":[2,4,6,-1,-1,-1,-1],"split_conditions":[-9.369859E-2,1.2786375E-1,-9.093507E-1,2.7664168E-2,-7.007461E-2,9.833292E-3,6.5103E-2],"split_indices":[6,0,2,0,0,0,0],"split_type":[0,0,0,0,0,0,0],"sum_hessian":[2.8488506E1,1.5444886E1,1.3043621E1,4.2314434E0,1.1213443E1,3.4805584E0,9.563063E0],"tree_param":{"num_deleted":"0","num_feature":"7","num_nodes":"7","size_leaf_vector":"1"}},{"base_weights":[5.5085327E-2,6.281122E-2,-7.981811E-1,4.4024006E-2,-6.320125E-2],"categories":[],"categories_nodes":[],"categories_segments":[],"categories_sizes":[],"default_left":[0,0,0,0,0],"id":7,"left_children":[1,-1,3,-1,-1],"loss_changes":[3.2105297E1,0E0,1.6609818E1,0E0,0E0],"parents":[2147483647,0,0,2,2],"right_children":[2,-1,4,-1,-1],"split_conditions":[1.2786375E-1,6.281122E-2,-8.886815E-1,4.4024006E-2,-6.320125E-2],"split_indices":[0,0,5,0,0],"split_type":[0,0,0,0,0],"sum_hessian":[2.7368864E1,1.0974959E1,1.6393904E1,3.1744974E0,1.3219407E1],"tree_param":{"num_deleted":"0","num_feature":"7","num_nodes":"5","size_leaf_vector":"1"}},{"base_weights":[1.3457137E-1,1.1043917E0,-6.4571226E-1,6.537618E-2,9.669266E-3,4.7496296E-2,-6.204602E-2],"categories":[],"categories_nodes":[],"categories_segments":[],"categories_sizes":[],"default_left":[0,0,0,0,0,0,0],"id":8,"left_children":[1,3,5,-1,-1,-1,-1],"loss_changes":[2.332195E1,2.0181236E0,1.8784323E1,0E0,0E0,0E0,0E0],"parents":[2147483647,0,0,1,1,2,2],"right_children":[2,4,6,-1,-1,-1,-1],"split_conditions":[1.2786375E-1,8.9189476E-1,-8.886815E-1,6.537618E-2,9.669266E-3,4.7496296E-2,-6.204602E-2],"split_indices":[0,5,5,0,0,0,0],"split_type":[0,0,0,0,0,0,0],"sum_hessian":[2.6934456E1,1.1638337E1,1.5296118E1,8.804621E0,2.8337162E0,3.8318245E0,1.14642935E1],"tree_param":{"num_deleted":"0","num_feature":"7","num_nodes":"7","size_leaf_vector":"1"}},{"base_weights":[6.497479E-2,-7.947884E-1,9.134133E-1,-5.4632217E-2,-1.4655799E-2,-3.7780523E-3,5.39546E-2],"categories":[],"categories_nodes":[],"categories_segments":[],"categories_sizes":[],"default_left":[0,0,0,0,0,0,0],"id":9,"left_children":[1,3,5,-1,-1,-1,-1],"loss_changes":[2.3019583E1,1.7136364E0,2.753892E0,0E0,0E0,0E0,0E0],"parents":[2147483647,0,0,1,1,2,2],"right_children":[2,4,6,-1,-1,-1,-1],"split_conditions":[-2.1798295E-1,4.3641067E-1,-3.7542373E-1,-5.4632217E-2,-1.4655799E-2,-3.7780523E-3,5.39546E-2],"split_indices":[6,2,3,0,0,0,0],"split_type":[0,0,0,0,0,0,0],"sum_hessian":[2.7566742E1,1.3754807E1,1.3811935E1,7.152296E0,6.602511E0,2.1379402E0,1.1673995E1],"tree_param":{"num_deleted":"0","num_feature":"7","num_nodes":"7","size_leaf_vector":"1"}},{"base_weights":[-3.0550878E-2,-6.109734E-1,5.943653E-2,2.7174547E-2,-4.06125E-2],"categories":[],"categories_nodes":[],"categories_segments":[],"categories_sizes":[],"default_left":[0,0,0,0,0],"id":10,"left_children":[1,3,-1,-1,-1],"loss_changes":[2.2725994E1,5.9220953E0,0E0,0E0,0E0],"parents":[2147483647,0,0,1,1],"right_children":[2,4,-1,-1,-1],"split_conditions":[3.5749403E-1,-8.055995E-1,5.943653E-2,2.7174547E-2,-4.06125E-2],"split_indices":[6,4,0,0,0],"split_type":[0,0,0,0,0],"sum_hessian":[2.8060019E1,1.968639E1,8.373627E0,2.4178524E0,1.7268538E1],"tree_param":{"num_deleted":"0","num_feature":"7","num_nodes":"5","size_leaf_vector":"1"}},{"base_weights":[3.225757E-2,-7.768045E-1,9.3642795E-1,-6.345997E-2,4.6488747E-2,4.105428E-3,5.530243E-2],"categories":[],"categories_nodes":[],"categories_segments":[],"categories_sizes":[],"default_left":[0,0,0,0,0,0,0],"id":11,"left_children":[1,3,5,-1,-1,-1,-1],"loss_changes":[2.1808699E1,1.5617988E1,1.8538303E0,0E0,0E0,0E0,0E0],"parents":[2147483647,0,0,1,1,2,2],"right_children":[2,4,6,-1,-1,-1,-1],"split_conditions":[-9.369859E-2,-6.1137766E-2,-2.6966166E-1,-6.345997E-2,4.6488747E-2,4.105428E-3,5.530243E-2],"split_indices":[6,1,3,0,0,0,0],"split_type":[0,0,0,0,0,0,0],"sum_hessian":[2.582368E1,1.3777312E1,1.2046368E1,1.1090097E1,2.6872153E0,2.4872272E0,9.559141E0],"tree_param":{"num_deleted":"0","num_feature":"7","num_nodes":"7","size_leaf_vector":"1"}},{"base_weights":[1.3033047E-2,-6.674331E-1,6.16651E-2,-6.1400183E-2,2.9130204E-2],"categories":[],"categories_nodes":[],"categories_segments":[],"categories_sizes":[],"default_left":[0,0,0,0,0],"id":12,"left_children":[1,3,-1,-1,-1],"loss_changes":[2.4914202E1,1.4946379E1,0E0,0E0,0E0],"parents":[2147483647,0,0,1,1],"right_children":[2,4,-1,-1,-1],"split_conditions":[-6.1137766E-2,1.7175317E-2,6.16651E-2,-6.1400183E-2,2.9130204E-2],"split_indices":[1,6,0,0,0],"split_type":[0,0,0,0,0],"sum_hessian":[2.6021751E1,1.7287632E1,8.73412E0,1.1959659E1,5.3279734E0],"tree_param":{"num_deleted":"0","num_feature":"7","num_nodes":"5","size_leaf_vector":"1"}},{"base_weights":[-4.9861882E-2,-6.984745E-1,6.0015332E-2,-5.63757E-2,3.815432E-2],"categories":[],"categories_nodes":[],"categories_segments":[],"categories_sizes":[],"default_left":[0,0,0,0,0],"id":13,"left_children":[1,3,-1,-1,-1],"loss_changes":[2.4613676E1,1.4192122E1,0E0,0E0,0E0],"parents":[2147483647,0,0,1,1],"right_children":[2,4,-1,-1,-1],"split_conditions":[-6.1137766E-2,3.5749403E-1,6.0015332E-2,-5.63757E-2,3.815432E-2],"split_indices":[1,6,0,0,0],"split_type":[0,0,0,0,0],"sum_hessian":[2.628661E1,1.7888361E1,8.39825E0,1.4182279E1,3.7060814E0],"tree_param":{"num_deleted":"0","num_feature":"7","num_nodes":"5","size_leaf_vector":"1"}},{"base_weights":[-4.3998674E-2,-6.596328E-1,1.0234175E0,-6.0615152E-2,2.4065973E-2,1.4994824E-2,5.6235738E-2],"categories":[],"categories_nodes":[],"categories_segments":[],"categories_sizes":[],"default_left":[0,0,0,0,0,0,0],"id":14,"left_children":[1,3,5,-1,-1,-1,-1],"loss_changes":[1.9025043E1,1.2690359E1,1.0391998E-1,0E0,0E0,0E0,0E0],"parents":[2147483647,0,0,1,1,2,2],"right_children":[2,4,6,-1,-1,-1,-1],"split_conditions":[-2.1448417E-1,1.7175317E-2,2.291039E-2,-6.0615152E-2,2.4065973E-2,1.4994824E-2,5.6235738E-2],"split_indices":[1,6,1,0,0,0,0],"split_type":[0,0,0,0,0,0,0],"sum_hessian":[2.489677E1,1.6274488E1,8.622283E0,1.0879469E1,5.39502E0,2.0317218E0,6.590561E0],"tree_param":{"num_deleted":"0","num_feature":"7","num_nodes":"7","size_leaf_vector":"1"}},{"base_weights":[-4.138194E-2,-6.181314E-1,5.7259995E-2,4.2646516E-2,-5.3014066E-2],"categories":[],"categories_nodes":[],"categories_segments":[],"categories_sizes":[],"default_left":[0,0,0,0,0],"id":15,"left_children":[1,3,-1,-1,-1],"loss_changes":[2.0434576E1,1.4817152E1,0E0,0E0,0E0],"parents":[2147483647,0,0,1,1],"right_children":[2,4,-1,-1,-1],"split_conditions":[-6.1137766E-2,-8.886815E-1,5.7259995E-2,4.2646516E-2,-5.3014066E-2],"split_indices":[1,5,0,0,0],"split_type":[0,0,0,0,0],"sum_hessian":[2.5790632E1,1.7999792E1,7.7908406E0,3.7304008E0,1.4269391E1],"tree_param":{"num_deleted":"0","num_feature":"7","num_nodes":"5","size_leaf_vector":"1"}},{"base_weights":[2.1271585E-3,9.733134E-1,-6.782528E-1,5.575716E-2,1.3385463E-2,-5.231136E-2,4.0875085E-2],"categories":[],"categories_nodes":[],"categories_segments":[],"categories_sizes":[],"default_left":[0,0,0,0,0,0,0],"id":16,"left_children":[1,3,5,-1,-1,-1,-1],"loss_changes":[1.8370703E1,5.489397E-1,1.0710828E1,0E0,0E0,0E0,0E0],"parents":[2147483647,0,0,1,1,2,2],"right_children":[2,4,6,-1,-1,-1,-1],"split_conditions":[1.2786375E-1,8.9189476E-1,1.6756917E0,5.575716E-2,1.3385463E-2,-5.231136E-2,4.0875085E-2],"split_indices":[0,5,0,0,0,0,0],"split_type":[0,0,0,0,0,0,0],"sum_hessian":[2.3803612E1,9.451412E0,1.4352199E1,6.9030485E0,2.5483637E0,1.2000897E1,2.3513012E0],"tree_param":{"num_deleted":"0","num_feature":"7","num_nodes":"7","size_leaf_vector":"1"}},{"base_weights":[2.4765988E-3,8.873483E-1,-6.0167533E-1,9.904381E-3,5.3572815E-2,-5.2638125E-2,4.4116203E-2],"categories":[],"categories_nodes":[],"categories_segments":[],"categories_sizes":[],"default_left":[0,0,0,0,0,0,0],"id":17,"left_children":[1,3,5,-1,-1,-1,-1],"loss_changes":[1.4818629E1,1.0024204E0,1.2887953E1,0E0,0E0,0E0,0E0],"parents":[2147483647,0,0,1,1,2,2],"right_children":[2,4,6,-1,-1,-1,-1],"split_conditions":[1.2786375E-1,-5.180813E-1,1.6756917E0,9.904381E-3,5.3572815E-2,-5.2638125E-2,4.4116203E-2],"split_indices":[0,6,0,0,0,0,0],"split_type":[0,0,0,0,0,0,0],"sum_hessian":[2.3721878E1,9.244465E0,1.4477414E1,2.823975E0,6.4204893E0,1.1548293E1,2.929121E0],"tree_param":{"num_deleted":"0","num_feature":"7","num_nodes":"7","size_leaf_vector":"1"}},{"base_weights":[1.3652967E-1,-4.917543E-1,5.2747067E-2,-4.7072828E-2,3.667892E-2],"categories":[],"categories_nodes":[],"categories_segments":[],"categories_sizes":[],"default_left":[0,0,0,0,0],"id":18,"left_children":[1,3,-1,-1,-1],"loss_changes":[1.5766576E1,1.0484982E1,0E0,0E0,0E0],"parents":[2147483647,0,0,1,1],"right_children":[2,4,-1,-1,-1],"split_conditions":[-1.24267854E-1,3.5749403E-1,5.2747067E-2,-4.7072828E-2,3.667892E-2],"split_indices":[1,6,0,0,0],"split_type":[0,0,0,0,0],"sum_hessian":[2.3525887E1,1.4521128E1,9.00476E0,1.0961541E1,3.559586E0],"tree_param":{"num_deleted":"0","num_feature":"7","num_nodes":"5","size_leaf_vector":"1"}},{"base_weights":[7.148845E-2,-5.0986147E-1,5.3647704E-2,4.3004688E-2,-4.5699466E-2],"categories":[],"categories_nodes":[],"categories_segments":[],"categories_sizes":[],"default_left":[0,0,0,0,0],"id":19,"left_children":[1,3,-1,-1,-1],"loss_changes":[1.5321564E1,1.0883034E1,0E0,0E0,0E0],"parents":[2147483647,0,0,1,1],"right_children":[2,4,-1,-1,-1],"split_conditions":[-6.1137766E-2,-8.886815E-1,5.3647704E-2,4.3004688E-2,-4.5699466E-2],"split_indices":[1,5,0,0,0],"split_type":[0,0,0,0,0],"sum_hessian":[2.2437305E1,1.4817518E1,7.619787E0,2.8613315E0,1.1956187E1],"tree_param":{"num_deleted":"0","num_feature":"7","num_nodes":"5","size_leaf_vector":"1"}},{"base_weights":[7.5827174E-2,-7.3999625E-1,7.1701777E-1,-5.406658E-2,2.4832655E-2,7.323774E-3,5.293697E-2],"categories":[],"categories_nodes":[],"categories_segments":[],"categories_sizes":[],"default_left":[0,0,0,0,0,0,0],"id":20,"left_children":[1,3,5,-1,-1,-1,-1],"loss_changes":[1.4450471E1,6.2442737E0,2.6821432E0,0E0,0E0,0E0,0E0],"parents":[2147483647,0,0,1,1,2,2],"right_children":[2,4,6,-1,-1,-1,-1],"split_conditions":[-3.348479E-1,-1.24267854E-1,-4.353482E-1,-5.406658E-2,2.4832655E-2,7.323774E-3,5.293697E-2],"split_indices":[6,1,1,0,0,0,0],"split_type":[0,0,0,0,0,0,0],"sum_hessian":[2.3596127E1,1.0248359E1,1.3347767E1,8.228383E0,2.0199764E0,6.070189E0,7.277578E0],"tree_param":{"num_deleted":"0","num_feature":"7","num_nodes":"7","size_leaf_vector":"1"}},{"base_weights":[6.4588934E-2,-4.4432116E-1,5.0952513E-2,-4.647998E-2,3.759679E-2],"categories":[],"categories_nodes":[],"categories_segments":[],"categories_sizes":[],"default_left":[0,0,0,0,0],"id":21,"left_children":[1,3,-1,-1,-1],"loss_changes":[1.224913E1,1.1048892E1,0E0,0E0,0E0],"parents":[2147483647,0,0,1,1],"right_children":[2,4,-1,-1,-1],"split_conditions":[-6.1137766E-2,3.5749403E-1,5.0952513E-2,-4.647998E-2,3.759679E-2],"split_indices":[1,6,0,0,0],"split_type":[0,0,0,0,0],"sum_hessian":[2.1353392E1,1.4624631E1,6.728761E0,1.0721231E1,3.9033995E0],"tree_param":{"num_deleted":"0","num_feature":"7","num_nodes":"5","size_leaf_vector":"1"}},{"base_weights":[8.809736E-3,-6.520786E-1,8.050768E-1,2.0688651E-2,-5.234259E-2,5.2365612E-2,1.5643885E-2],"categories":[],"categories_nodes":[],"categories_segments":[],"categories_sizes":[],"default_left":[0,0,0,0,0,0,0],"id":22,"left_children":[1,3,5,-1,-1,-1,-1],"loss_changes":[1.376691E1,6.887671E0,7.581129E-1,0E0,0E0,0E0,0E0],"parents":[2147483647,0,0,1,1,2,2],"right_children":[2,4,6,-1,-1,-1,-1],"split_conditions":[1.7175317E-2,1.2786375E-1,-6.2446035E-2,2.0688651E-2,-5.234259E-2,5.2365612E-2,1.5643885E-2],"split_indices":[6,0,5,0,0,0,0],"split_type":[0,0,0,0,0,0,0],"sum_hessian":[2.2165545E1,1.2310334E1,9.855211E0,3.3011832E0,9.009151E0,5.093033E0,4.762178E0],"tree_param":{"num_deleted":"0","num_feature":"7","num_nodes":"7","size_leaf_vector":"1"}},{"base_weights":[1.2300886E-2,-6.0779667E-1,6.4709574E-1,-3.9807793E-2,-1.0752625E-2,5.0647754E-2,6.0197692E-3],"categories":[],"categories_nodes":[],"categories_segments":[],"categories_sizes":[],"default_left":[0,0,0,0,0,0,0],"id":23,"left_children":[1,3,5,-1,-1,-1,-1],"loss_changes":[9.9476385E0,6.047754E-1,2.1588178E0,0E0,0E0,0E0,0E0],"parents":[2147483647,0,0,1,1,2,2],"right_children":[2,4,6,-1,-1,-1,-1],"split_conditions":[-2.1798295E-1,-6.6601634E-1,-2.8308958E-1,-3.9807793E-2,-1.0752625E-2,5.0647754E-2,6.0197692E-3],"split_indices":[6,3,5,0,0,0,0],"split_type":[0,0,0,0,0,0,0],"sum_hessian":[2.127293E1,1.0804069E1,1.0468863E1,5.9135966E0,4.8904715E0,5.088112E0,5.3807507E0],"tree_param":{"num_deleted":"0","num_feature":"7","num_nodes":"7","size_leaf_vector":"1"}},{"base_weights":[-3.7510376E-3,-5.091153E-1,4.9584266E-2,-5.4196965E-2,2.6939798E-2],"categories":[],"categories_nodes":[],"categories_segments":[],"categories_sizes":[],"default_left":[0,0,0,0,0],"id":24,"left_children":[1,3,-1,-1,-1],"loss_changes":[1.2498757E1,1.1088696E1,0E0,0E0,0E0],"parents":[2147483647,0,0,1,1],"right_children":[2,4,-1,-1,-1],"split_conditions":[-6.1137766E-2,1.7175317E-2,4.9584266E-2,-5.4196965E-2,2.6939798E-2],"split_indices":[1,6,0,0,0],"split_type":[0,0,0,0,0],"sum_hessian":[2.083831E1,1.4469512E1,6.3687973E0,9.29955E0,5.169962E0],"tree_param":{"num_deleted":"0","num_feature":"7","num_nodes":"5","size_leaf_vector":"1"}},{"base_weights":[3.8920305E-4,-4.9376857E-1,4.4469055E-2,2.4058618E-2,-4.687329E-2],"categories":[],"categories_nodes":[],"categories_segments":[],"categories_sizes":[],"default_left":[0,0,0,0,0],"id":25,"left_children":[1,3,-1,-1,-1],"loss_changes":[1.0972317E1,7.8469048E0,0E0,0E0,0E0],"parents":[2147483647,0,0,1,1],"right_children":[2,4,-1,-1,-1],"split_conditions":[3.5749403E-1,1.2786375E-1,4.4469055E-2,2.4058618E-2,-4.687329E-2],"split_indices":[6,0,0,0,0],"split_type":[0,0,0,0,0],"sum_hessian":[2.0977396E1,1.4054286E1,6.9231095E0,4.342825E0,9.711461E0],"tree_param":{"num_deleted":"0","num_feature":"7","num_nodes":"5","size_leaf_vector":"1"}},{"base_weights":[1.092769E-1,-4.3845224E-1,5.017614E-2,-4.1189738E-2,3.944383E-2],"categories":[],"categories_nodes":[],"categories_segments":[],"categories_sizes":[],"default_left":[0,0,0,0,0],"id":26,"left_children":[1,3,-1,-1,-1],"loss_changes":[1.1661146E1,8.41381E0,0E0,0E0,0E0],"parents":[2147483647,0,0,1,1],"right_children":[2,4,-1,-1,-1],"split_conditions":[-1.24267854E-1,1.6756917E0,5.017614E-2,-4.1189738E-2,3.944383E-2],"split_indices":[1,0,0,0,0],"split_type":[0,0,0,0,0],"sum_hessian":[2.0011133E1,1.3042154E1,6.968979E0,1.0426229E1,2.6159258E0],"tree_param":{"num_deleted":"0","num_feature":"7","num_nodes":"5","size_leaf_vector":"1"}},{"base_weights":[1.08950734E-1,-5.761602E-1,7.6848227E-1,-4.8800398E-2,2.6628604E-2,4.8865327E-3,4.438619E-2],"categories":[],"categories_nodes":[],"categories_segments":[],"categories_sizes":[],"default_left":[0,0,0,0,0,0,0],"id":27,"left_children":[1,3,5,-1,-1,-1,-1],"loss_changes":[1.0521391E1,6.1833935E0,7.64061E-1,0E0,0E0,0E0,0E0],"parents":[2147483647,0,0,1,1,2,2],"right_children":[2,4,6,-1,-1,-1,-1],"split_conditions":[-2.1798295E-1,-1.24267854E-1,-1.1462525E0,-4.8800398E-2,2.6628604E-2,4.8865327E-3,4.438619E-2],"split_indices":[6,1,2,0,0,0,0],"split_type":[0,0,0,0,0,0,0],"sum_hessian":[1.932523E1,9.602806E0,9.722424E0,7.2335505E0,2.3692555E0,2.0168025E0,7.705621E0],"tree_param":{"num_deleted":"0","num_feature":"7","num_nodes":"7","size_leaf_vector":"1"}},{"base_weights":[1.9720593E-2,-5.5178225E-1,6.613084E-1,1.5577215E-2,-4.727629E-2,1.5864166E-3,4.111901E-2],"categories":[],"categories_nodes":[],"categories_segments":[],"categories_sizes":[],"default_left":[0,0,0,0,0,0,0],"id":28,"left_children":[1,3,5,-1,-1,-1,-1],"loss_changes":[8.509089E0,4.774086E0,1.0536542E0,0E0,0E0,0E0,0E0],"parents":[2147483647,0,0,1,1,2,2],"right_children":[2,4,6,-1,-1,-1,-1],"split_conditions":[-9.369859E-2,1.2786375E-1,-9.093507E-1,1.5577215E-2,-4.727629E-2,1.5864166E-3,4.111901E-2],"split_indices":[6,0,2,0,0,0,0],"split_type":[0,0,0,0,0,0,0],"sum_hessian":[1.9216105E1,1.0311208E1,8.904897E0,3.3604884E0,6.950719E0,2.3018067E0,6.60309E0],"tree_param":{"num_deleted":"0","num_feature":"7","num_nodes":"7","size_leaf_vector":"1"}},{"base_weights":[7.456669E-2,-4.005467E-1,4.7614466E-2,-4.628035E-2,1.9786792E-2],"categories":[],"categories_nodes":[],"categories_segments":[],"categories_sizes":[],"default_left":[0,0,0,0,0],"id":29,"left_children":[1,3,-1,-1,-1],"loss_changes":[9.98353E0,7.319059E0,0E0,0E0,0E0],"parents":[2147483647,0,0,1,1],"right_children":[2,4,-1,-1,-1],"split_conditions":[-6.1137766E-2,1.7175317E-2,4.7614466E-2,-4.628035E-2,1.9786792E-2],"split_indices":[1,6,0,0,0],"split_type":[0,0,0,0,0],"sum_hessian":[2.0110947E1,1.3753466E1,6.3574805E0,8.092522E0,5.6609445E0],"tree_param":{"num_deleted":"0","num_feature":"7","num_nodes":"5","size_leaf_vector":"1"}},{"base_weights":[9.336316E-3,-4.3289158E-1,4.516717E-2,-3.834272E-2,3.6487993E-2],"categories":[],"categories_nodes":[],"categories_segments":[],"categories_sizes":[],"default_left":[0,0,0,0,0],"id":30,"left_children":[1,3,-1,-1,-1],"loss_changes":[8.775898E0,6.8967957E0,0E0,0E0,0E0],"parents":[2147483647,0,0,1,1],"right_children":[2,4,-1,-1,-1],"split_conditions":[-6.1137766E-2,1.6756917E0,4.516717E-2,-3.834272E-2,3.6487993E-2],"split_indices":[1,0,0,0,0],"split_type":[0,0,0,0,0],"sum_hessian":[1.82193E1,1.2879782E1,5.3395185E0,1.0534638E1,2.3451426E0],"tree_param":{"num_deleted":"0","num_feature":"7","num_nodes":"5","size_leaf_vector":"1"}},{"base_weights":[3.9581727E-2,7.570246E-1,-4.3512586E-1,4.5694984E-2,5.5887266E-3,-4.266951E-2,3.787816E-2],"categories":[],"categories_nodes":[],"categories_segments":[],"categories_sizes":[],"default_left":[0,0,0,0,0,0,0],"id":31,"left_children":[1,3,5,-1,-1,-1,-1],"loss_changes":[7.7671986E0,7.1086025E-1,8.192581E0,0E0,0E0,0E0,0E0],"parents":[2147483647,0,0,1,1,2,2],"right_children":[2,4,6,-1,-1,-1,-1],"split_conditions":[1.2786375E-1,7.987917E-1,1.6756917E0,4.5694984E-2,5.5887266E-3,-4.266951E-2,3.787816E-2],"split_indices":[0,5,0,0,0,0,0],"split_type":[0,0,0,0,0,0,0],"sum_hessian":[1.8871716E1,7.0409837E0,1.1830731E1,4.9941034E0,2.04688E0,9.180266E0,2.6504645E0],"tree_param":{"num_deleted":"0","num_feature":"7","num_nodes":"7","size_leaf_vector":"1"}},{"base_weights":[1.1966896E-1,-5.1190263E-1,7.307626E-1,-4.6090957E-2,2.5841502E-2,9.339503E-3,4.4328652E-2],"categories":[],"categories_nodes":[],"categories_segments":[],"categories_sizes":[],"default_left":[0,0,0,0,0,0,0],"id":32,"left_children":[1,3,5,-1,-1,-1,-1],"loss_changes":[8.431461E0,5.577091E0,5.961728E-1,0E0,0E0,0E0,0E0],"parents":[2147483647,0,0,1,1,2,2],"right_children":[2,4,6,-1,-1,-1,-1],"split_conditions":[-9.369859E-2,-1.24267854E-1,3.5749403E-1,-4.6090957E-2,2.5841502E-2,9.339503E-3,4.4328652E-2],"split_indices":[6,1,6,0,0,0,0],"split_type":[0,0,0,0,0,0,0],"sum_hessian":[1.7907541E1,8.965863E0,8.941677E0,6.5598364E0,2.4060266E0,2.9700747E0,5.971603E0],"tree_param":{"num_deleted":"0","num_feature":"7","num_nodes":"7","size_leaf_vector":"1"}},{"base_weights":[3.2138165E-2,-6.270539E-1,5.393681E-1,9.441427E-3,-4.5101758E-2,3.9536446E-2,-1.1222849E-2],"categories":[],"categories_nodes":[],"categories_segments":[],"categories_sizes":[],"default_left":[0,0,0,0,0,0,0],"id":33,"left_children":[1,3,5,-1,-1,-1,-1],"loss_changes":[7.365034E0,2.499782E0,2.731933E0,0E0,0E0,0E0,0E0],"parents":[2147483647,0,0,1,1,2,2],"right_children":[2,4,6,-1,-1,-1,-1],"split_conditions":[-3.4176078E-1,1.2786375E-1,5.106781E-1,9.441427E-3,-4.5101758E-2,3.9536446E-2,-1.1222849E-2],"split_indices":[3,0,4,0,0,0,0],"split_type":[0,0,0,0,0,0,0],"sum_hessian":[1.8004095E1,7.6237993E0,1.0380296E1,2.0797348E0,5.5440645E0,7.757123E0,2.6231728E0],"tree_param":{"num_deleted":"0","num_feature":"7","num_nodes":"7","size_leaf_vector":"1"}},{"base_weights":[1.02066144E-1,-4.0586028E-1,4.557873E-2,-3.912846E-2,3.1829424E-2],"categories":[],"categories_nodes":[],"categories_segments":[],"categories_sizes":[],"default_left":[0,0,0,0,0],"id":34,"left_children":[1,3,-1,-1,-1],"loss_changes":[8.690849E0,6.205819E0,0E0,0E0,0E0],"parents":[2147483647,0,0,1,1],"right_children":[2,4,-1,-1,-1],"split_conditions":[-1.24267854E-1,3.5749403E-1,4.557873E-2,-3.912846E-2,3.1829424E-2],"split_indices":[1,6,0,0,0],"split_type":[0,0,0,0,0],"sum_hessian":[1.7337236E1,1.1265782E1,6.0714536E0,8.641577E0,2.6242058E0],"tree_param":{"num_deleted":"0","num_feature":"7","num_nodes":"5","size_leaf_vector":"1"}},{"base_weights":[3.232733E-2,-3.78515E-1,4.2856805E-2,2.856185E-2,-4.1159537E-2],"categories":[],"categories_nodes":[],"categories_segments":[],"categories_sizes":[],"default_left":[0,0,0,0,0],"id":35,"left_children":[1,3,-1,-1,-1],"loss_changes":[7.143888E0,6.9297347E0,0E0,0E0,0E0],"parents":[2147483647,0,0,1,1],"right_children":[2,4,-1,-1,-1],"split_conditions":[-6.1137766E-2,-5.4894066E-1,4.2856805E-2,2.856185E-2,-4.1159537E-2],"split_indices":[1,5,0,0,0],"split_type":[0,0,0,0,0],"sum_hessian":[1.716688E1,1.21814165E1,4.985464E0,3.7030656E0,8.478351E0],"tree_param":{"num_deleted":"0","num_feature":"7","num_nodes":"5","size_leaf_vector":"1"}},{"base_weights":[8.257029E-2,-5.616889E-1,6.372841E-1,-4.29914E-2,1.3319778E-2,6.609215E-3,4.3412145E-2],"categories":[],"categories_nodes":[],"categories_segments":[],"categories_sizes":[],"default_left":[0,0,0,0,0,0,0],"id":36,"left_children":[1,3,5,-1,-1,-1,-1],"loss_changes":[7.316487E0,2.8301847E0,1.0375166E0,0E0,0E0,0E0,0E0],"parents":[2147483647,0,0,1,1,2,2],"right_children":[2,4,6,-1,-1,-1,-1],"split_conditions":[-2.1798295E-1,-2.1448417E-1,-4.562872E-1,-4.29914E-2,1.3319778E-2,6.609215E-3,4.3412145E-2],"split_indices":[6,1,1,0,0,0,0],"split_type":[0,0,0,0,0,0,0],"sum_hessian":[1.6469378E1,7.6080456E0,8.861332E0,5.537637E0,2.0704086E0,3.7672114E0,5.0941205E0],"tree_param":{"num_deleted":"0","num_feature":"7","num_nodes":"7","size_leaf_vector":"1"}},{"base_weights":[2.0474155E-2,-3.45296E-1,4.0815465E-2,-3.1833485E-2,3.309563E-2],"categories":[],"categories_nodes":[],"categories_segments":[],"categories_sizes":[],"default_left":[0,0,0,0,0],"id":37,"left_children":[1,3,-1,-1,-1],"loss_changes":[5.95768E0,4.9810247E0,0E0,0E0,0E0],"parents":[2147483647,0,0,1,1],"right_children":[2,4,-1,-1,-1],"split_conditions":[-6.1137766E-2,1.6756917E0,4.0815465E-2,-3.1833485E-2,3.309563E-2],"split_indices":[1,0,0,0,0],"split_type":[0,0,0,0,0],"sum_hessian":[1.6529984E1,1.2100685E1,4.4292984E0,9.956236E0,2.1444488E0],"tree_param":{"num_deleted":"0","num_feature":"7","num_nodes":"5","size_leaf_vector":"1"}},{"base_weights":[4.602672E-2,-6.043335E-1,5.550431E-1,-4.08795E-2,2.8813237E-3,-4.5757876E-3,3.966435E-2],"categories":[],"categories_nodes":[],"categories_segments":[],"categories_sizes":[],"default_left":[0,0,0,0,0,0,0],"id":38,"left_children":[1,3,5,-1,-1,-1,-1],"loss_changes":[6.667037E0,1.3520074E0,1.870904E0,0E0,0E0,0E0,0E0],"parents":[2147483647,0,0,1,1,2,2],"right_children":[2,4,6,-1,-1,-1,-1],"split_conditions":[-2.1798295E-1,-2.5826207E-1,-9.093507E-1,-4.08795E-2,2.8813237E-3,-4.5757876E-3,3.966435E-2],"split_indices":[6,1,2,0,0,0,0],"split_type":[0,0,0,0,0,0,0],"sum_hessian":[1.6112923E1,6.9098396E0,9.203082E0,4.870541E0,2.0392988E0,2.809704E0,6.393378E0],"tree_param":{"num_deleted":"0","num_feature":"7","num_nodes":"7","size_leaf_vector":"1"}},{"base_weights":[1.7971863E-1,-3.9481235E-1,7.052636E-1,-4.244114E-2,3.155143E-2,-7.4163196E-4,4.505015E-2],"categories":[],"categories_nodes":[],"categories_segments":[],"categories_sizes":[],"default_left":[0,0,0,0,0,0,0],"id":39,"left_children":[1,3,5,-1,-1,-1,-1],"loss_changes":[5.67816E0,5.442314E0,1.3764744E0,0E0,0E0,0E0,0E0],"parents":[2147483647,0,0,1,1,2,2],"right_children":[2,4,6,-1,-1,-1,-1],"split_conditions":[-9.369859E-2,-1.24267854E-1,-8.9077026E-1,-4.244114E-2,3.155143E-2,-7.4163196E-4,4.505015E-2],"split_indices":[6,1,2,0,0,0,0],"split_type":[0,0,0,0,0,0,0],"sum_hessian":[1.49611025E1,7.3851237E0,7.5759783E0,5.358645E0,2.0264788E0,2.0142598E0,5.5617185E0],"tree_param":{"num_deleted":"0","num_feature":"7","num_nodes":"7","size_leaf_vector":"1"}},{"base_weights":[3.14989E-2,-3.6065236E-1,4.0734395E-2,2.6700476E-2,-3.8930517E-2],"categories":[],"categories_nodes":[],"categories_segments":[],"categories_sizes":[],"default_left":[0,0,0,0,0],"id":40,"left_children":[1,3,-1,-1,-1],"loss_changes":[6.07451E0,5.8013754E0,0E0,0E0,0E0],"parents":[2147483647,0,0,1,1],"right_children":[2,4,-1,-1,-1],"split_conditions":[-6.1137766E-2,-5.4894066E-1,4.0734395E-2,2.6700476E-2,-3.8930517E-2],"split_indices":[1,5,0,0,0],"split_type":[0,0,0,0,0],"sum_hessian":[1.5865063E1,1.1290702E1,4.5743613E0,3.4183054E0,7.8723965E0],"tree_param":{"num_deleted":"0","num_feature":"7","num_nodes":"5","size_leaf_vector":"1"}},{"base_weights":[7.384845E-2,-5.2238816E-1,5.165878E-1,-4.1136816E-2,1.0029062E-2,4.3115206E-2,-7.1140104E-3],"categories":[],"categories_nodes":[],"categories_segments":[],"categories_sizes":[],"default_left":[0,0,0,0,0,0,0],"id":41,"left_children":[1,3,5,-1,-1,-1,-1],"loss_changes":[5.07639E0,2.1362042E0,2.720908E0,0E0,0E0,0E0,0E0],"parents":[2147483647,0,0,1,1,2,2],"right_children":[2,4,6,-1,-1,-1,-1],"split_conditions":[-3.7542373E-1,-2.6369357E-1,2.8283614E-1,-4.1136816E-2,1.0029062E-2,4.3115206E-2,-7.1140104E-3],"split_indices":[3,1,4,0,0,0,0],"split_type":[0,0,0,0,0,0,0],"sum_hessian":[1.518583E1,6.3178234E0,8.868007E0,4.2685275E0,2.049296E0,5.411167E0,3.456839E0],"tree_param":{"num_deleted":"0","num_feature":"7","num_nodes":"7","size_leaf_vector":"1"}},{"base_weights":[3.6713943E-2,-3.7523824E-1,3.9865386E-2,2.3527129E-2,-3.779618E-2],"categories":[],"categories_nodes":[],"categories_segments":[],"categories_sizes":[],"default_left":[0,0,0,0,0],"id":42,"left_children":[1,3,-1,-1,-1],"loss_changes":[5.6907945E0,4.5437403E0,0E0,0E0,0E0],"parents":[2147483647,0,0,1,1],"right_children":[2,4,-1,-1,-1],"split_conditions":[-6.1137766E-2,-7.2056025E-1,3.9865386E-2,2.3527129E-2,-3.779618E-2],"split_indices":[1,5,0,0,0],"split_type":[0,0,0,0,0],"sum_hessian":[1.4252712E1,9.902584E0,4.350128E0,2.9271536E0,6.975431E0],"tree_param":{"num_deleted":"0","num_feature":"7","num_nodes":"5","size_leaf_vector":"1"}},{"base_weights":[5.9669457E-2,-2.8157213E-1,3.8220726E-2,2.7795589E-2,-3.7456907E-2],"categories":[],"categories_nodes":[],"categories_segments":[],"categories_sizes":[],"default_left":[0,0,0,0,0],"id":43,"left_children":[1,3,-1,-1,-1],"loss_changes":[4.379923E0,5.738037E0,0E0,0E0,0E0],"parents":[2147483647,0,0,1,1],"right_children":[2,4,-1,-1,-1],"split_conditions":[-6.1137766E-2,-5.4894066E-1,3.8220726E-2,2.7795589E-2,-3.7456907E-2],"split_indices":[1,5,0,0,0],"split_type":[0,0,0,0,0],"sum_hessian":[1.4422616E1,1.0526533E1,3.8960826E0,3.6359968E0,6.890537E0],"tree_param":{"num_deleted":"0","num_feature":"7","num_nodes":"5","size_leaf_vector":"1"}},{"base_weights":[-8.525502E-3,-4.1130012E-1,3.8446195E-2,2.6133884E-2,-3.6619306E-2],"categories":[],"categories_nodes":[],"categories_segments":[],"categories_sizes":[],"default_left":[0,0,0,0,0],"id":44,"left_children":[1,3,-1,-1,-1],"loss_changes":[5.572685E0,4.2729034E0,0E0,0E0,0E0],"parents":[2147483647,0,0,1,1],"right_children":[2,4,-1,-1,-1],"split_conditions":[-6.1137766E-2,-9.445431E-1,3.8446195E-2,2.6133884E-2,-3.6619306E-2],"split_indices":[1,5,0,0,0],"split_type":[0,0,0,0,0],"sum_hessian":[1.3776384E1,9.695396E0,4.080988E0,2.1591516E0,7.5362453E0],"tree_param":{"num_deleted":"0","num_feature":"7","num_nodes":"5","size_leaf_vector":"1"}},{"base_weights":[-3.9974842E-2,-4.7360995E-1,3.40603E-2,-3.970791E-2,2.1341553E-2],"categories":[],"categories_nodes":[],"categories_segments":[],"categories_sizes":[],"default_left":[0,0,0,0,0],"id":45,"left_children":[1,3,-1,-1,-1],"loss_changes":[5.452698E0,3.7893965E0,0E0,0E0,0E0],"parents":[2147483647,0,0,1,1],"right_children":[2,4,-1,-1,-1],"split_conditions":[3.5749403E-1,-1.24267854E-1,3.40603E-2,-3.970791E-2,2.1341553E-2],"split_indices":[6,1,0,0,0],"split_type":[0,0,0,0,0],"sum_hessian":[1.3372548E1,8.779899E0,4.592649E0,6.648991E0,2.1309078E0],"tree_param":{"num_deleted":"0","num_feature":"7","num_nodes":"5","size_leaf_vector":"1"}},{"base_weights":[3.8457043E-2,-3.2059544E-1,3.7629236E-2,-4.2362515E-2,1.5124485E-2],"categories":[],"categories_nodes":[],"categories_segments":[],"categories_sizes":[],"default_left":[0,0,0,0,0],"id":46,"left_children":[1,3,-1,-1,-1],"loss_changes":[4.5313964E0,4.4208665E0,0E0,0E0,0E0],"parents":[2147483647,0,0,1,1],"right_children":[2,4,-1,-1,-1],"split_conditions":[-6.1137766E-2,-9.369859E-2,3.7629236E-2,-4.2362515E-2,1.5124485E-2],"split_indices":[1,6,0,0,0],"split_type":[0,0,0,0,0],"sum_hessian":[1.379056E1,9.910065E0,3.880495E0,4.980677E0,4.9293876E0],"tree_param":{"num_deleted":"0","num_feature":"7","num_nodes":"5","size_leaf_vector":"1"}},{"base_weights":[4.0410005E-2,-5.1110435E-1,4.945469E-1,3.6963478E-3,-3.6813065E-2,4.156467E-2,1.1805717E-3],"categories":[],"categories_nodes":[],"categories_segments":[],"categories_sizes":[],"default_left":[0,0,0,0,0,0,0],"id":47,"left_children":[1,3,5,-1,-1,-1,-1],"loss_changes":[4.393563E0,1.1618149E0,1.4720228E0,0E0,0E0,0E0,0E0],"parents":[2147483647,0,0,1,1,2,2],"right_children":[2,4,6,-1,-1,-1,-1],"split_conditions":[-2.1798295E-1,1.2786375E-1,-6.2446035E-2,3.6963478E-3,-3.6813065E-2,4.156467E-2,1.1805717E-3],"split_indices":[6,0,5,0,0,0,0],"split_type":[0,0,0,0,0,0,0],"sum_hessian":[1.352338E1,5.993659E0,7.529721E0,2.0390003E0,3.954659E0,3.4980314E0,4.0316896E0],"tree_param":{"num_deleted":"0","num_feature":"7","num_nodes":"7","size_leaf_vector":"1"}},{"base_weights":[6.367911E-2,-4.9777976E-1,4.8612887E-1,-2.9230649E-2,-7.38205E-3,-1.0249397E-2,3.6885954E-2],"categories":[],"categories_nodes":[],"categories_segments":[],"categories_sizes":[],"default_left":[0,0,0,0,0,0,0],"id":48,"left_children":[1,3,5,-1,-1,-1,-1],"loss_changes":[3.9700053E0,4.927826E-2,1.9366846E0,0E0,0E0,0E0,0E0],"parents":[2147483647,0,0,1,1,2,2],"right_children":[2,4,6,-1,-1,-1,-1],"split_conditions":[-3.7542373E-1,-7.360901E-1,1.7175317E-2,-2.9230649E-2,-7.38205E-3,-1.0249397E-2,3.6885954E-2],"split_indices":[3,3,6,0,0,0,0],"split_type":[0,0,0,0,0,0,0],"sum_hessian":[1.2697339E1,5.298589E0,7.3987494E0,3.172499E0,2.1260903E0,2.0734515E0,5.325298E0],"tree_param":{"num_deleted":"0","num_feature":"7","num_nodes":"7","size_leaf_vector":"1"}},{"base_weights":[1.23680875E-1,-4.1598156E-1,6.021316E-1,-3.7474234E-2,1.4195909E-2,4.1107845E-2,-2.2596736E-4],"categories":[],"categories_nodes":[],"categories_segments":[],"categories_sizes":[],"default_left":[0,0,0,0,0,0,0],"id":49,"left_children":[1,3,5,-1,-1,-1,-1],"loss_changes":[4.3984737E0,2.3574748E0,1.184494E0,0E0,0E0,0E0,0E0],"parents":[2147483647,0,0,1,1,2,2],"right_children":[2,4,6,-1,-1,-1,-1],"split_conditions":[-9.369859E-2,-2.1448417E-1,3.5796475E-1,-3.7474234E-2,1.4195909E-2,4.1107845E-2,-2.2596736E-4],"split_indices":[6,1,4,0,0,0,0],"split_type":[0,0,0,0,0,0,0],"sum_hessian":[1.3094865E1,6.276499E0,6.818366E0,4.154962E0,2.1215365E0,4.482234E0,2.3361323E0],"tree_param":{"num_deleted":"0","num_feature":"7","num_nodes":"7","size_leaf_vector":"1"}},{"base_weights":[1.2354302E-1,-4.161707E-1,5.6036097E-1,6.96404E-3,-3.4879617E-2,3.7352215E-2,4.890335E-3],"categories":[],"categories_nodes":[],"categories_segments":[],"categories_sizes":[],"default_left":[0,0,0,0,0,0,0],"id":50,"left_children":[1,3,5,-1,-1,-1,-1],"loss_changes":[3.936053E0,1.4027737E0,6.298392E-1,0E0,0E0,0E0,0E0],"parents":[2147483647,0,0,1,1,2,2],"right_children":[2,4,6,-1,-1,-1,-1],"split_conditions":[-2.1798295E-1,1.2786375E-1,-1.3495629E-1,6.96404E-3,-3.4879617E-2,3.7352215E-2,4.890335E-3],"split_indices":[6,0,4,0,0,0,0],"split_type":[0,0,0,0,0,0,0],"sum_hessian":[1.2717047E1,5.7308216E0,6.9862247E0,2.2668417E0,3.4639797E0,4.101007E0,2.8852177E0],"tree_param":{"num_deleted":"0","num_feature":"7","num_nodes":"7","size_leaf_vector":"1"}},{"base_weights":[9.228629E-2,-3.168243E-1,3.9008413E-2,2.3622246E-2,-3.4404736E-2],"categories":[],"categories_nodes":[],"categories_segments":[],"categories_sizes":[],"default_left":[0,0,0,0,0],"id":51,"left_children":[1,3,-1,-1,-1],"loss_changes":[4.739687E0,3.8389115E0,0E0,0E0,0E0],"parents":[2147483647,0,0,1,1],"right_children":[2,4,-1,-1,-1],"split_conditions":[-1.24267854E-1,-5.4894066E-1,3.9008413E-2,2.3622246E-2,-3.4404736E-2],"split_indices":[1,5,0,0,0],"split_type":[0,0,0,0,0],"sum_hessian":[1.3085416E1,8.881863E0,4.2035537E0,2.6670556E0,6.214807E0],"tree_param":{"num_deleted":"0","num_feature":"7","num_nodes":"5","size_leaf_vector":"1"}},{"base_weights":[1.2770236E-1,-3.978344E-1,5.615222E-1,9.661647E-3,-3.483751E-2,3.7994362E-2,8.665926E-3],"categories":[],"categories_nodes":[],"categories_segments":[],"categories_sizes":[],"default_left":[0,0,0,0,0,0,0],"id":52,"left_children":[1,3,5,-1,-1,-1,-1],"loss_changes":[3.7033703E0,1.6173035E0,4.0301847E-1,0E0,0E0,0E0,0E0],"parents":[2147483647,0,0,1,1,2,2],"right_children":[2,4,6,-1,-1,-1,-1],"split_conditions":[-2.1798295E-1,1.2786375E-1,-2.8308958E-1,9.661647E-3,-3.483751E-2,3.7994362E-2,8.665926E-3],"split_indices":[6,0,5,0,0,0,0],"split_type":[0,0,0,0,0,0,0],"sum_hessian":[1.2284002E1,5.6298304E0,6.654172E0,2.128367E0,3.5014634E0,3.1365583E0,3.517614E0],"tree_param":{"num_deleted":"0","num_feature":"7","num_nodes":"7","size_leaf_vector":"1"}},{"base_weights":[9.631459E-2,-3.7098515E-1,5.322847E-1,1.53864985E-2,-3.5454273E-2,-1.2379522E-3,3.755236E-2],"categories":[],"categories_nodes":[],"categories_segments":[],"categories_sizes":[],"default_left":[0,0,0,0,0,0,0],"id":53,"left_children":[1,3,5,-1,-1,-1,-1],"loss_changes":[3.2170863E0,2.241128E0,1.0105984E0,0E0,0E0,0E0,0E0],"parents":[2147483647,0,0,1,1,2,2],"right_children":[2,4,6,-1,-1,-1,-1],"split_conditions":[-4.353482E-1,-7.6619875E-1,-4.241805E-1,1.53864985E-2,-3.5454273E-2,-1.2379522E-3,3.755236E-2],"split_indices":[1,1,6,0,0,0,0],"split_type":[0,0,0,0,0,0,0],"sum_hessian":[1.1852475E1,5.8645763E0,5.9878993E0,2.0097609E0,3.8548152E0,2.1886072E0,3.7992923E0],"tree_param":{"num_deleted":"0","num_feature":"7","num_nodes":"7","size_leaf_vector":"1"}},{"base_weights":[-1.5356699E-2,5.086639E-1,-3.7740666E-1,3.368495E-2,4.45722E-3,2.0609368E-2,-3.951306E-2],"categories":[],"categories_nodes":[],"categories_segments":[],"categories_sizes":[],"default_left":[0,0,0,0,0,0,0],"id":54,"left_children":[1,3,5,-1,-1,-1,-1],"loss_changes":[3.0734978E0,3.3991003E-1,3.7587755E0,0E0,0E0,0E0,0E0],"parents":[2147483647,0,0,1,1,2,2],"right_children":[2,4,6,-1,-1,-1,-1],"split_conditions":[1.2786375E-1,8.1863874E-1,-5.4894066E-1,3.368495E-2,4.45722E-3,2.0609368E-2,-3.951306E-2],"split_indices":[0,2,5,0,0,0,0],"split_type":[0,0,0,0,0,0,0],"sum_hessian":[1.2176304E1,4.644328E0,7.5319757E0,2.4634604E0,2.1808677E0,2.587175E0,4.944801E0],"tree_param":{"num_deleted":"0","num_feature":"7","num_nodes":"7","size_leaf_vector":"1"}},{"base_weights":[5.0522247E-3,-5.1387185E-1,4.0401587E-1,-3.0912438E-2,-6.8671503E-3,3.2717668E-2,-6.5189684E-3],"categories":[],"categories_nodes":[],"categories_segments":[],"categories_sizes":[],"default_left":[0,0,0,0,0,0,0],"id":55,"left_children":[1,3,5,-1,-1,-1,-1],"loss_changes":[3.2135804E0,9.566665E-2,1.3426955E0,0E0,0E0,0E0,0E0],"parents":[2147483647,0,0,1,1,2,2],"right_children":[2,4,6,-1,-1,-1,-1],"split_conditions":[-3.7542373E-1,-7.729637E-1,2.8283614E-1,-3.0912438E-2,-6.8671503E-3,3.2717668E-2,-6.5189684E-3],"split_indices":[3,3,4,0,0,0,0],"split_type":[0,0,0,0,0,0,0],"sum_hessian":[1.1516547E1,4.7553387E0,6.761208E0,2.7179601E0,2.0373785E0,4.2985864E0,2.4626217E0],"tree_param":{"num_deleted":"0","num_feature":"7","num_nodes":"7","size_leaf_vector":"1"}},{"base_weights":[7.624587E-2,-4.8507944E-1,4.549698E-1,-2.996995E-2,-6.4517683E-3,-3.1802144E-3,3.2471158E-2],"categories":[],"categories_nodes":[],"categories_segments":[],"categories_sizes":[],"default_left":[0,0,0,0,0,0,0],"id":56,"left_children":[1,3,5,-1,-1,-1,-1],"loss_changes":[3.1720235E0,9.534252E-2,9.601011E-1,0E0,0E0,0E0,0E0],"parents":[2147483647,0,0,1,1,2,2],"right_children":[2,4,6,-1,-1,-1,-1],"split_conditions":[-3.7542373E-1,-4.6691373E-1,-7.5141627E-1,-2.996995E-2,-6.4517683E-3,-3.1802144E-3,3.2471158E-2],"split_indices":[3,1,2,0,0,0,0],"split_type":[0,0,0,0,0,0,0],"sum_hessian":[1.0844747E1,4.142819E0,6.701927E0,2.1011755E0,2.0416434E0,2.19474E0,4.507187E0],"tree_param":{"num_deleted":"0","num_feature":"7","num_nodes":"7","size_leaf_vector":"1"}},{"base_weights":[-5.8658427E-4,4.9479538E-1,-3.7243032E-1,3.2792415E-2,4.0198104E-3,1.1820479E-2,-3.664444E-2],"categories":[],"categories_nodes":[],"categories_segments":[],"categories_sizes":[],"default_left":[0,0,0,0,0,0,0],"id":57,"left_children":[1,3,5,-1,-1,-1,-1],"loss_changes":[2.86437E0,3.3959615E-1,2.2955012E0,0E0,0E0,0E0,0E0],"parents":[2147483647,0,0,1,1,2,2],"right_children":[2,4,6,-1,-1,-1,-1],"split_conditions":[1.2786375E-1,8.1863874E-1,-2.1459149E-1,3.2792415E-2,4.0198104E-3,1.1820479E-2,-3.664444E-2],"split_indices":[0,2,4,0,0,0,0],"split_type":[0,0,0,0,0,0,0],"sum_hessian":[1.1549148E1,4.6684213E0,6.880726E0,2.5226982E0,2.145723E0,2.8147302E0,4.0659957E0],"tree_param":{"num_deleted":"0","num_feature":"7","num_nodes":"7","size_leaf_vector":"1"}},{"base_weights":[5.3864703E-2,-3.8642055E-1,4.7728756E-1,4.031179E-3,-2.9933011E-2,3.7735812E-2,-5.526567E-3],"categories":[],"categories_nodes":[],"categories_segments":[],"categories_sizes":[],"default_left":[0,0,0,0,0,0,0],"id":58,"left_children":[1,3,5,-1,-1,-1,-1],"loss_changes":[2.744032E0,8.2520926E-1,1.371886E0,0E0,0E0,0E0,0E0],"parents":[2147483647,0,0,1,1,2,2],"right_children":[2,4,6,-1,-1,-1,-1],"split_conditions":[-1.4866084E-1,1.2786375E-1,3.5796475E-1,4.031179E-3,-2.9933011E-2,3.7735812E-2,-5.526567E-3],"split_indices":[3,0,4,0,0,0,0],"split_type":[0,0,0,0,0,0,0],"sum_hessian":[1.0740464E1,5.35107E0,5.3893943E0,2.059436E0,3.2916338E0,3.2755861E0,2.1138082E0],"tree_param":{"num_deleted":"0","num_feature":"7","num_nodes":"7","size_leaf_vector":"1"}},{"base_weights":[4.5166243E-2,-2.7220142E-1,3.436034E-2,2.5262246E-2,-3.132238E-2],"categories":[],"categories_nodes":[],"categories_segments":[],"categories_sizes":[],"default_left":[0,0,0,0,0],"id":59,"left_children":[1,3,-1,-1,-1],"loss_changes":[3.235724E0,3.615886E0,0E0,0E0,0E0],"parents":[2147483647,0,0,1,1],"right_children":[2,4,-1,-1,-1],"split_conditions":[-6.1137766E-2,-5.4894066E-1,3.436034E-2,2.5262246E-2,-3.132238E-2],"split_indices":[1,5,0,0,0],"split_type":[0,0,0,0,0],"sum_hessian":[1.2043807E1,8.830747E0,3.2130604E0,2.497375E0,6.3333716E0],"tree_param":{"num_deleted":"0","num_feature":"7","num_nodes":"5","size_leaf_vector":"1"}},{"base_weights":[1.1411565E-2,-2.9609442E-1,3.3551954E-2,2.198032E-2,-3.1903725E-2],"categories":[],"categories_nodes":[],"categories_segments":[],"categories_sizes":[],"default_left":[0,0,0,0,0],"id":60,"left_children":[1,3,-1,-1,-1],"loss_changes":[3.223272E0,3.300796E0,0E0,0E0,0E0],"parents":[2147483647,0,0,1,1],"right_children":[2,4,-1,-1,-1],"split_conditions":[-6.1137766E-2,-5.4894066E-1,3.3551954E-2,2.198032E-2,-3.1903725E-2],"split_indices":[1,5,0,0,0],"split_type":[0,0,0,0,0],"sum_hessian":[1.19316635E1,8.889692E0,3.0419705E0,2.639785E0,6.249908E0],"tree_param":{"num_deleted":"0","num_feature":"7","num_nodes":"5","size_leaf_vector":"1"}},{"base_weights":[4.4954076E-2,-2.6345432E-1,3.278768E-2,-3.5256594E-2,1.2921092E-2],"categories":[],"categories_nodes":[],"categories_segments":[],"categories_sizes":[],"default_left":[0,0,0,0,0],"id":61,"left_children":[1,3,-1,-1,-1],"loss_changes":[2.772559E0,2.6666899E0,0E0,0E0,0E0],"parents":[2147483647,0,0,1,1],"right_children":[2,4,-1,-1,-1],"split_conditions":[-6.1137766E-2,-1.2135594E-1,3.278768E-2,-3.5256594E-2,1.2921092E-2],"split_indices":[1,6,0,0,0],"split_type":[0,0,0,0,0],"sum_hessian":[1.0884022E1,7.9880137E0,2.8960075E0,3.9460618E0,4.041952E0],"tree_param":{"num_deleted":"0","num_feature":"7","num_nodes":"5","size_leaf_vector":"1"}},{"base_weights":[6.919394E-2,-2.8235916E-2,4.048589E-1,-3.0290696E-3,3.3679765E-2],"categories":[],"categories_nodes":[],"categories_segments":[],"categories_sizes":[],"default_left":[0,0,0,0,0],"id":62,"left_children":[1,-1,3,-1,-1],"loss_changes":[2.9429862E0,0E0,1.1826513E0,0E0,0E0],"parents":[2147483647,0,0,2,2],"right_children":[2,-1,4,-1,-1],"split_conditions":[-6.6601634E-1,-2.8235916E-2,-4.353482E-1,-3.0290696E-3,3.3679765E-2],"split_indices":[3,0,1,0,0],"split_type":[0,0,0,0,0],"sum_hessian":[9.6820135E0,2.8794053E0,6.8026085E0,3.0570552E0,3.7455533E0],"tree_param":{"num_deleted":"0","num_feature":"7","num_nodes":"5","size_leaf_vector":"1"}},{"base_weights":[1.050101E-1,-4.4180658E-1,5.421998E-1,-3.1561647E-2,-1.089694E-3,4.0201023E-2,-2.923115E-3],"categories":[],"categories_nodes":[],"categories_segments":[],"categories_sizes":[],"default_left":[0,0,0,0,0,0,0],"id":63,"left_children":[1,3,5,-1,-1,-1,-1],"loss_changes":[3.447948E0,4.9915206E-1,1.3205438E0,0E0,0E0,0E0,0E0],"parents":[2147483647,0,0,1,1,2,2],"right_children":[2,4,6,-1,-1,-1,-1],"split_conditions":[-3.7542373E-1,-4.115219E-1,2.8283614E-1,-3.1561647E-2,-1.089694E-3,4.0201023E-2,-2.923115E-3],"split_indices":[3,1,4,0,0,0,0],"split_type":[0,0,0,0,0,0,0],"sum_hessian":[1.0418727E1,4.619611E0,5.799116E0,2.4905765E0,2.129034E0,3.567135E0,2.2319813E0],"tree_param":{"num_deleted":"0","num_feature":"7","num_nodes":"7","size_leaf_vector":"1"}},{"base_weights":[7.5569846E-2,-3.644998E-1,4.6909216E-1,1.1591638E-2,-3.4805488E-2,3.2975707E-2,-8.8794046E-4],"categories":[],"categories_nodes":[],"categories_segments":[],"categories_sizes":[],"default_left":[0,0,0,0,0,0,0],"id":64,"left_children":[1,3,5,-1,-1,-1,-1],"loss_changes":[2.5098333E0,1.7139442E0,7.171637E-1,0E0,0E0,0E0,0E0],"parents":[2147483647,0,0,1,1,2,2],"right_children":[2,4,6,-1,-1,-1,-1],"split_conditions":[-4.115219E-1,-1.7375855E-1,8.1863874E-1,1.1591638E-2,-3.4805488E-2,3.2975707E-2,-8.8794046E-4],"split_indices":[1,4,2,0,0,0,0],"split_type":[0,0,0,0,0,0,0],"sum_hessian":[1.0518188E1,5.035062E0,5.483127E0,2.014382E0,3.0206797E0,3.431614E0,2.0515132E0],"tree_param":{"num_deleted":"0","num_feature":"7","num_nodes":"7","size_leaf_vector":"1"}},{"base_weights":[6.608089E-2,-3.2012588E-1,3.5496797E-2,1.0443759E-2,-2.8068965E-2],"categories":[],"categories_nodes":[],"categories_segments":[],"categories_sizes":[],"default_left":[0,0,0,0,0],"id":65,"left_children":[1,3,-1,-1,-1],"loss_changes":[3.412457E0,1.3593644E0,0E0,0E0,0E0],"parents":[2147483647,0,0,1,1],"right_children":[2,4,-1,-1,-1],"split_conditions":[3.5749403E-1,1.2786375E-1,3.5496797E-2,1.0443759E-2,-2.8068965E-2],"split_indices":[6,0,0,0,0],"split_type":[0,0,0,0,0],"sum_hessian":[9.895379E0,6.8138123E0,3.0815663E0,2.2182436E0,4.5955687E0],"tree_param":{"num_deleted":"0","num_feature":"7","num_nodes":"5","size_leaf_vector":"1"}},{"base_weights":[7.950179E-2,-2.1514238E-1,3.1873137E-2,-2.5886884E-2,2.0010617E-2],"categories":[],"categories_nodes":[],"categories_segments":[],"categories_sizes":[],"default_left":[0,0,0,0,0],"id":66,"left_children":[1,3,-1,-1,-1],"loss_changes":[2.291623E0,2.1881144E0,0E0,0E0,0E0],"parents":[2147483647,0,0,1,1],"right_children":[2,4,-1,-1,-1],"split_conditions":[-6.1137766E-2,3.5749403E-1,3.1873137E-2,-2.5886884E-2,2.0010617E-2],"split_indices":[1,6,0,0,0],"split_type":[0,0,0,0,0],"sum_hessian":[1.0270884E1,7.5256276E0,2.7452555E0,5.2575464E0,2.2680814E0],"tree_param":{"num_deleted":"0","num_feature":"7","num_nodes":"5","size_leaf_vector":"1"}},{"base_weights":[4.6782516E-2,-2.5307673E-1,3.1409405E-2,2.4109958E-2,-3.157757E-2],"categories":[],"categories_nodes":[],"categories_segments":[],"categories_sizes":[],"default_left":[0,0,0,0,0],"id":67,"left_children":[1,3,-1,-1,-1],"loss_changes":[2.4320636E0,3.2321324E0,0E0,0E0,0E0],"parents":[2147483647,0,0,1,1],"right_children":[2,4,-1,-1,-1],"split_conditions":[-6.1137766E-2,-5.4894066E-1,3.1409405E-2,2.4109958E-2,-3.157757E-2],"split_indices":[1,5,0,0,0],"split_type":[0,0,0,0,0],"sum_hessian":[1.012634E1,7.425882E0,2.7004585E0,2.3372014E0,5.0886803E0],"tree_param":{"num_deleted":"0","num_feature":"7","num_nodes":"5","size_leaf_vector":"1"}},{"base_weights":[5.130825E-2,-3.7505832E-1,4.7425604E-1,-2.929133E-2,1.7989619E-3,-7.122331E-4,3.4280773E-2],"categories":[],"categories_nodes":[],"categories_segments":[],"categories_sizes":[],"default_left":[0,0,0,0,0,0,0],"id":68,"left_children":[1,3,5,-1,-1,-1,-1],"loss_changes":[2.46623E0,6.43821E-1,7.173382E-1,0E0,0E0,0E0,0E0],"parents":[2147483647,0,0,1,1,2,2],"right_children":[2,4,6,-1,-1,-1,-1],"split_conditions":[-1.351895E-1,-4.115219E-1,3.6560833E-1,-2.929133E-2,1.7989619E-3,-7.122331E-4,3.4280773E-2],"split_indices":[3,1,6,0,0,0,0],"split_type":[0,0,0,0,0,0,0],"sum_hessian":[9.703396E0,4.94494E0,4.7584553E0,2.7065973E0,2.2383428E0,2.0003626E0,2.7580929E0],"tree_param":{"num_deleted":"0","num_feature":"7","num_nodes":"7","size_leaf_vector":"1"}},{"base_weights":[8.132358E-2,2.6377777E-2,-2.654493E-1,1.7967856E-2,-3.0353317E-2],"categories":[],"categories_nodes":[],"categories_segments":[],"categories_sizes":[],"default_left":[0,0,0,0,0],"id":69,"left_children":[1,-1,3,-1,-1],"loss_changes":[2.0543187E0,0E0,2.0974345E0,0E0,0E0],"parents":[2147483647,0,0,2,2],"right_children":[2,-1,4,-1,-1],"split_conditions":[1.2786375E-1,2.6377777E-2,-5.2980846E-1,1.7967856E-2,-3.0353317E-2],"split_indices":[0,0,5,0,0],"split_type":[0,0,0,0,0],"sum_hessian":[9.46586E0,3.6833801E0,5.78248E0,2.007312E0,3.7751677E0],"tree_param":{"num_deleted":"0","num_feature":"7","num_nodes":"5","size_leaf_vector":"1"}},{"base_weights":[1.2124986E-1,-1.6180594E-2,4.227121E-1,1.1344426E-3,3.37585E-2],"categories":[],"categories_nodes":[],"categories_segments":[],"categories_sizes":[],"default_left":[0,0,0,0,0],"id":70,"left_children":[1,-1,3,-1,-1],"loss_changes":[1.8175272E0,0E0,7.499584E-1,0E0,0E0],"parents":[2147483647,0,0,2,2],"right_children":[2,-1,4,-1,-1],"split_conditions":[-3.7542373E-1,-1.6180594E-2,3.4285742E-1,1.1344426E-3,3.37585E-2],"split_indices":[3,0,6,0,0],"split_type":[0,0,0,0,0],"sum_hessian":[9.512561E0,3.783047E0,5.7295136E0,3.0602484E0,2.6692653E0],"tree_param":{"num_deleted":"0","num_feature":"7","num_nodes":"5","size_leaf_vector":"1"}},{"base_weights":[1.1177317E-1,-2.7514827E-1,2.7483571E-2,1.0348726E-3,-2.1034425E-2],"categories":[],"categories_nodes":[],"categories_segments":[],"categories_sizes":[],"default_left":[0,0,0,0,0],"id":71,"left_children":[1,3,-1,-1,-1],"loss_changes":[2.170997E0,3.268969E-1,0E0,0E0,0E0],"parents":[2147483647,0,0,1,1],"right_children":[2,4,-1,-1,-1],"split_conditions":[-2.5334133E-2,2.2827981E-2,2.7483571E-2,1.0348726E-3,-2.1034425E-2],"split_indices":[3,5,0,0,0],"split_type":[0,0,0,0,0],"sum_hessian":[9.028094E0,5.187663E0,3.840431E0,2.2762375E0,2.9114256E0],"tree_param":{"num_deleted":"0","num_feature":"7","num_nodes":"5","size_leaf_vector":"1"}},{"base_weights":[1.1370436E-1,-2.4199668E-1,3.305129E-2,1.4259889E-2,-3.157693E-2],"categories":[],"categories_nodes":[],"categories_segments":[],"categories_sizes":[],"default_left":[0,0,0,0,0],"id":72,"left_children":[1,3,-1,-1,-1],"loss_changes":[2.4438481E0,2.0188203E0,0E0,0E0,0E0],"parents":[2147483647,0,0,1,1],"right_children":[2,4,-1,-1,-1],"split_conditions":[-2.1448417E-1,-2.1459149E-1,3.305129E-2,1.4259889E-2,-3.157693E-2],"split_indices":[1,4,0,0,0],"split_type":[0,0,0,0,0],"sum_hessian":[8.909624E0,6.076347E0,2.8332777E0,2.8096194E0,3.2667272E0],"tree_param":{"num_deleted":"0","num_feature":"7","num_nodes":"5","size_leaf_vector":"1"}},{"base_weights":[7.7125635E-3,-2.6202887E-1,2.8457224E-2,-2.826689E-2,1.8608425E-2],"categories":[],"categories_nodes":[],"categories_segments":[],"categories_sizes":[],"default_left":[0,0,0,0,0],"id":73,"left_children":[1,3,-1,-1,-1],"loss_changes":[1.9685684E0,2.1172996E0,0E0,0E0,0E0],"parents":[2147483647,0,0,1,1],"right_children":[2,4,-1,-1,-1],"split_conditions":[-6.1137766E-2,3.5749403E-1,2.8457224E-2,-2.826689E-2,1.8608425E-2],"split_indices":[1,6,0,0,0],"split_type":[0,0,0,0,0],"sum_hessian":[9.029369E0,6.8194947E0,2.209875E0,4.7601013E0,2.0593934E0],"tree_param":{"num_deleted":"0","num_feature":"7","num_nodes":"5","size_leaf_vector":"1"}},{"base_weights":[1.5134029E-1,-1.9354613E-1,3.2169316E-2,1.2655476E-2,-2.7927557E-2],"categories":[],"categories_nodes":[],"categories_segments":[],"categories_sizes":[],"default_left":[0,0,0,0,0],"id":74,"left_children":[1,3,-1,-1,-1],"loss_changes":[1.9993397E0,1.5219955E0,0E0,0E0,0E0],"parents":[2147483647,0,0,1,1],"right_children":[2,4,-1,-1,-1],"split_conditions":[-1.24267854E-1,-2.1459149E-1,3.2169316E-2,1.2655476E-2,-2.7927557E-2],"split_indices":[1,4,0,0,0],"split_type":[0,0,0,0,0],"sum_hessian":[8.314026E0,5.6012683E0,2.7127578E0,2.7946184E0,2.8066497E0],"tree_param":{"num_deleted":"0","num_feature":"7","num_nodes":"5","size_leaf_vector":"1"}},{"base_weights":[3.6338035E-2,-2.7432266E-1,2.9655546E-2,1.7847842E-2,-3.003034E-2],"categories":[],"categories_nodes":[],"categories_segments":[],"categories_sizes":[],"default_left":[0,0,0,0,0],"id":75,"left_children":[1,3,-1,-1,-1],"loss_changes":[2.1551337E0,2.1090162E0,0E0,0E0,0E0],"parents":[2147483647,0,0,1,1],"right_children":[2,4,-1,-1,-1],"split_conditions":[-6.1137766E-2,-7.2056025E-1,2.9655546E-2,1.7847842E-2,-3.003034E-2],"split_indices":[1,5,0,0,0],"split_type":[0,0,0,0,0],"sum_hessian":[8.578443E0,6.1574106E0,2.4210324E0,2.0340374E0,4.123373E0],"tree_param":{"num_deleted":"0","num_feature":"7","num_nodes":"5","size_leaf_vector":"1"}},{"base_weights":[9.421195E-2,-1.7667016E-2,4.0156332E-1,3.2045867E-2,-4.7333273E-3],"categories":[],"categories_nodes":[],"categories_segments":[],"categories_sizes":[],"default_left":[0,0,0,0,0],"id":76,"left_children":[1,-1,3,-1,-1],"loss_changes":[1.7495226E0,0E0,9.8286986E-1,0E0,0E0],"parents":[2147483647,0,0,2,2],"right_children":[2,-1,4,-1,-1],"split_conditions":[-3.7542373E-1,-1.7667016E-2,2.843617E-1,3.2045867E-2,-4.7333273E-3],"split_indices":[3,0,4,0,0],"split_type":[0,0,0,0,0],"sum_hessian":[8.655643E0,3.402217E0,5.253426E0,3.1506019E0,2.1028244E0],"tree_param":{"num_deleted":"0","num_feature":"7","num_nodes":"5","size_leaf_vector":"1"}},{"base_weights":[7.598427E-2,-1.9409366E-1,2.9456565E-2,2.1947732E-2,-2.5691187E-2],"categories":[],"categories_nodes":[],"categories_segments":[],"categories_sizes":[],"default_left":[0,0,0,0,0],"id":77,"left_children":[1,3,-1,-1,-1],"loss_changes":[1.7917626E0,2.2512083E0,0E0,0E0,0E0],"parents":[2147483647,0,0,1,1],"right_children":[2,4,-1,-1,-1],"split_conditions":[-6.1137766E-2,-5.4894066E-1,2.9456565E-2,2.1947732E-2,-2.5691187E-2],"split_indices":[1,5,0,0,0],"split_type":[0,0,0,0,0],"sum_hessian":[9.278395E0,6.893661E0,2.3847337E0,2.0630836E0,4.8305774E0],"tree_param":{"num_deleted":"0","num_feature":"7","num_nodes":"5","size_leaf_vector":"1"}},{"base_weights":[1.14281096E-1,-1.7008437E-2,4.396752E-1,3.2380093E-2,-1.7678986E-3],"categories":[],"categories_nodes":[],"categories_segments":[],"categories_sizes":[],"default_left":[0,0,0,0,0],"id":78,"left_children":[1,-1,3,-1,-1],"loss_changes":[1.8570985E0,0E0,7.383882E-1,0E0,0E0],"parents":[2147483647,0,0,2,2],"right_children":[2,-1,4,-1,-1],"split_conditions":[-3.7542373E-1,-1.7008437E-2,1.7614877E-1,3.2380093E-2,-1.7678986E-3],"split_indices":[3,0,4,0,0],"split_type":[0,0,0,0,0],"sum_hessian":[8.5357065E0,3.5236788E0,5.012028E0,2.9807646E0,2.0312636E0],"tree_param":{"num_deleted":"0","num_feature":"7","num_nodes":"5","size_leaf_vector":"1"}},{"base_weights":[1.2667219E-2,-2.077893E-2,3.3855996E-1,-2.0792736E-3,3.028065E-2],"categories":[],"categories_nodes":[],"categories_segments":[],"categories_sizes":[],"default_left":[0,0,0,0,0],"id":79,"left_children":[1,-1,3,-1,-1],"loss_changes":[1.7752402E0,0E0,7.793153E-1,0E0,0E0],"parents":[2147483647,0,0,2,2],"right_children":[2,-1,4,-1,-1],"split_conditions":[-3.7542373E-1,-2.077893E-2,3.4285742E-1,-2.0792736E-3,3.028065E-2],"split_indices":[3,0,6,0,0],"split_type":[0,0,0,0,0],"sum_hessian":[8.703784E0,3.5233958E0,5.180389E0,2.8343291E0,2.3460596E0],"tree_param":{"num_deleted":"0","num_feature":"7","num_nodes":"5","size_leaf_vector":"1"}},{"base_weights":[3.8842626E-2,-2.4376766E-1,2.826553E-2,-3.155124E-2,1.3231221E-2],"categories":[],"categories_nodes":[],"categories_segments":[],"categories_sizes":[],"default_left":[0,0,0,0,0],"id":80,"left_children":[1,3,-1,-1,-1],"loss_changes":[1.8015298E0,1.9229584E0,0E0,0E0,0E0],"parents":[2147483647,0,0,1,1],"right_children":[2,4,-1,-1,-1],"split_conditions":[-6.1137766E-2,1.7175317E-2,2.826553E-2,-3.155124E-2,1.3231221E-2],"split_indices":[1,6,0,0,0],"split_type":[0,0,0,0,0],"sum_hessian":[8.255859E0,6.070916E0,2.1849432E0,3.172158E0,2.8987582E0],"tree_param":{"num_deleted":"0","num_feature":"7","num_nodes":"5","size_leaf_vector":"1"}},{"base_weights":[3.1280767E-2,-1.8806372E-2,3.3656925E-1,-1.4636491E-3,3.0260755E-2],"categories":[],"categories_nodes":[],"categories_segments":[],"categories_sizes":[],"default_left":[0,0,0,0,0],"id":81,"left_children":[1,-1,3,-1,-1],"loss_changes":[1.5512257E0,0E0,7.255063E-1,0E0,0E0],"parents":[2147483647,0,0,2,2],"right_children":[2,-1,4,-1,-1],"split_conditions":[-3.7542373E-1,-1.8806372E-2,3.4285742E-1,-1.4636491E-3,3.0260755E-2],"split_indices":[3,0,6,0,0],"split_type":[0,0,0,0,0],"sum_hessian":[8.43633E0,3.4149683E0,5.021362E0,2.8806114E0,2.1407504E0],"tree_param":{"num_deleted":"0","num_feature":"7","num_nodes":"5","size_leaf_vector":"1"}},{"base_weights":[9.576606E-2,-1.44332815E-2,2.1951843E-2],"categories":[],"categories_nodes":[],"categories_segments":[],"categories_sizes":[],"default_left":[0,0,0],"id":82,"left_children":[1,-1,-1],"loss_changes":[1.5467013E0,0E0,0E0],"parents":[2147483647,0,0],"right_children":[2,-1,-1],"split_conditions":[-4.115219E-1,-1.44332815E-2,2.1951843E-2],"split_indices":[1,0,0],"split_type":[0,0,0],"sum_hessian":[7.7998695E0,3.829419E0,3.9704504E0],"tree_param":{"num_deleted":"0","num_feature":"7","num_nodes":"3","size_leaf_vector":"1"}},{"base_weights":[1.02788225E-1,-1.716111E-2,4.481666E-1,3.5483077E-2,-4.350584E-3],"categories":[],"categories_nodes":[],"categories_segments":[],"categories_sizes":[],"default_left":[0,0,0,0,0],"id":83,"left_children":[1,-1,3,-1,-1],"loss_changes":[1.9346637E0,0E0,1.0779344E0,0E0,0E0],"parents":[2147483647,0,0,2,2],"right_children":[2,-1,4,-1,-1],"split_conditions":[-3.4176078E-1,-1.716111E-2,2.843617E-1,3.5483077E-2,-4.350584E-3],"split_indices":[3,0,4,0,0],"split_type":[0,0,0,0,0],"sum_hessian":[8.562174E0,3.742158E0,4.820016E0,2.7998948E0,2.0201209E0],"tree_param":{"num_deleted":"0","num_feature":"7","num_nodes":"5","size_leaf_vector":"1"}},{"base_weights":[7.989215E-2,-3.0769053E-1,4.2248517E-1,3.280079E-3,-2.6011026E-2,3.0040557E-2,1.3549952E-3],"categories":[],"categories_nodes":[],"categories_segments":[],"categories_sizes":[],"default_left":[0,0,0,0,0,0,0],"id":84,"left_children":[1,3,5,-1,-1,-1,-1],"loss_changes":[1.6701996E0,5.5539435E-1,4.243368E-1,0E0,0E0,0E0,0E0],"parents":[2147483647,0,0,1,1,2,2],"right_children":[2,4,6,-1,-1,-1,-1],"split_conditions":[-4.115219E-1,-6.731089E-1,5.3729606E-1,3.280079E-3,-2.6011026E-2,3.0040557E-2,1.3549952E-3],"split_indices":[1,1,5,0,0,0,0],"split_type":[0,0,0,0,0,0,0],"sum_hessian":[8.620403E0,4.1402297E0,4.4801736E0,2.0036452E0,2.1365843E0,2.371477E0,2.108697E0],"tree_param":{"num_deleted":"0","num_feature":"7","num_nodes":"7","size_leaf_vector":"1"}},{"base_weights":[2.3526533E-2,2.5487876E-2,-3.4793124E-1,5.8072284E-3,-3.0396922E-2],"categories":[],"categories_nodes":[],"categories_segments":[],"categories_sizes":[],"default_left":[0,0,0,0,0],"id":85,"left_children":[1,-1,3,-1,-1],"loss_changes":[2.058533E0,0E0,9.299393E-1,0E0,0E0],"parents":[2147483647,0,0,2,2],"right_children":[2,-1,4,-1,-1],"split_conditions":[1.2786375E-1,2.5487876E-2,-1.3495629E-1,5.8072284E-3,-3.0396922E-2],"split_indices":[0,0,4,0,0],"split_type":[0,0,0,0,0],"sum_hessian":[7.433429E0,2.8968613E0,4.5365677E0,2.0263772E0,2.5101902E0],"tree_param":{"num_deleted":"0","num_feature":"7","num_nodes":"5","size_leaf_vector":"1"}},{"base_weights":[-6.860357E-2,-4.0639246E-1,1.7084418E-2,-2.5739795E-2,-5.0694332E-3],"categories":[],"categories_nodes":[],"categories_segments":[],"categories_sizes":[],"default_left":[0,0,0,0,0],"id":86,"left_children":[1,3,-1,-1,-1],"loss_changes":[1.6648749E0,1.0731602E-1,0E0,0E0,0E0],"parents":[2147483647,0,0,1,1],"right_children":[2,4,-1,-1,-1],"split_conditions":[-1.351895E-1,-6.6601634E-1,1.7084418E-2,-2.5739795E-2,-5.0694332E-3],"split_indices":[3,3,0,0,0],"split_type":[0,0,0,0,0],"sum_hessian":[8.008912E0,4.402988E0,3.6059241E0,2.2334971E0,2.169491E0],"tree_param":{"num_deleted":"0","num_feature":"7","num_nodes":"5","size_leaf_vector":"1"}},{"base_weights":[4.931473E-2,2.4739478E-2,-2.0869164E-1,-2.6295135E-2,1.4346221E-2],"categories":[],"categories_nodes":[],"categories_segments":[],"categories_sizes":[],"default_left":[0,0,0,0,0],"id":87,"left_children":[1,-1,3,-1,-1],"loss_changes":[1.3631297E0,0E0,1.524782E0,0E0,0E0],"parents":[2147483647,0,0,2,2],"right_children":[2,-1,4,-1,-1],"split_conditions":[-5.4894066E-1,2.4739478E-2,-2.1448417E-1,-2.6295135E-2,1.4346221E-2],"split_indices":[5,0,1,0,0],"split_type":[0,0,0,0,0],"sum_hessian":[8.063162E0,2.2840424E0,5.779119E0,3.4492588E0,2.3298604E0],"tree_param":{"num_deleted":"0","num_feature":"7","num_nodes":"5","size_leaf_vector":"1"}},{"base_weights":[1.0786467E-1,-1.7625634E-1,2.8155167E-2,-2.8518314E-2,1.4740467E-2],"categories":[],"categories_nodes":[],"categories_segments":[],"categories_sizes":[],"default_left":[0,0,0,0,0],"id":88,"left_children":[1,3,-1,-1,-1],"loss_changes":[1.4012444E0,1.6820364E0,0E0,0E0,0E0],"parents":[2147483647,0,0,1,1],"right_children":[2,4,-1,-1,-1],"split_conditions":[-1.24267854E-1,1.7175317E-2,2.8155167E-2,-2.8518314E-2,1.4740467E-2],"split_indices":[1,6,0,0,0],"split_type":[0,0,0,0,0],"sum_hessian":[7.298877E0,5.248725E0,2.0501516E0,2.6282446E0,2.6204803E0],"tree_param":{"num_deleted":"0","num_feature":"7","num_nodes":"5","size_leaf_vector":"1"}},{"base_weights":[6.1484255E-2,-2.3624963E-1,2.6918355E-2,-2.2824593E-2,3.759939E-3],"categories":[],"categories_nodes":[],"categories_segments":[],"categories_sizes":[],"default_left":[0,0,0,0,0],"id":89,"left_children":[1,3,-1,-1,-1],"loss_changes":[1.6667864E0,5.840824E-1,0E0,0E0,0E0],"parents":[2147483647,0,0,1,1],"right_children":[2,4,-1,-1,-1],"split_conditions":[3.5749403E-1,-3.641892E-1,2.6918355E-2,-2.2824593E-2,3.759939E-3],"split_indices":[6,1,0,0,0],"split_type":[0,0,0,0,0],"sum_hessian":[7.947648E0,5.5141635E0,2.4334843E0,2.684438E0,2.8297255E0],"tree_param":{"num_deleted":"0","num_feature":"7","num_nodes":"5","size_leaf_vector":"1"}},{"base_weights":[2.9859707E-2,2.3218485E-2,-2.1392603E-1,1.3033095E-2,-2.971035E-2],"categories":[],"categories_nodes":[],"categories_segments":[],"categories_sizes":[],"default_left":[0,0,0,0,0],"id":90,"left_children":[1,-1,3,-1,-1],"loss_changes":[1.2013869E0,0E0,1.6512654E0,0E0,0E0],"parents":[2147483647,0,0,2,2],"right_children":[2,-1,4,-1,-1],"split_conditions":[-5.002809E-1,2.3218485E-2,1.2786375E-1,1.3033095E-2,-2.971035E-2],"split_indices":[5,0,0,0,0],"split_type":[0,0,0,0,0],"sum_hessian":[7.4659743E0,2.0329337E0,5.4330406E0,2.6966941E0,2.7363462E0],"tree_param":{"num_deleted":"0","num_feature":"7","num_nodes":"5","size_leaf_vector":"1"}},{"base_weights":[1.0316625E-1,-1.9804333E-1,2.9542401E-2,8.530941E-4,-1.818889E-2],"categories":[],"categories_nodes":[],"categories_segments":[],"categories_sizes":[],"default_left":[0,0,0,0,0],"id":91,"left_children":[1,3,-1,-1,-1],"loss_changes":[1.6307278E0,2.753617E-1,0E0,0E0,0E0],"parents":[2147483647,0,0,1,1],"right_children":[2,4,-1,-1,-1],"split_conditions":[3.4285742E-1,4.5634252E-1,2.9542401E-2,8.530941E-4,-1.818889E-2],"split_indices":[6,5,0,0,0],"split_type":[0,0,0,0,0],"sum_hessian":[7.5081954E0,5.3757553E0,2.1324399E0,3.1201928E0,2.2555628E0],"tree_param":{"num_deleted":"0","num_feature":"7","num_nodes":"5","size_leaf_vector":"1"}},{"base_weights":[1.7050397E-2,-1.9726433E-2,1.8395087E-2],"categories":[],"categories_nodes":[],"categories_segments":[],"categories_sizes":[],"default_left":[0,0,0],"id":92,"left_children":[1,-1,-1],"loss_changes":[1.6156917E0,0E0,0E0],"parents":[2147483647,0,0],"right_children":[2,-1,-1],"split_conditions":[-3.7542373E-1,-1.9726433E-2,1.8395087E-2],"split_indices":[3,0,0],"split_type":[0,0,0],"sum_hessian":[7.178449E0,3.1887681E0,3.9896812E0],"tree_param":{"num_deleted":"0","num_feature":"7","num_nodes":"3","size_leaf_vector":"1"}},{"base_weights":[1.6210556E-2,-2.8358546E-1,1.8992435E-2,-2.0652968E-2,-6.131029E-4],"categories":[],"categories_nodes":[],"categories_segments":[],"categories_sizes":[],"default_left":[0,0,0,0,0],"id":93,"left_children":[1,3,-1,-1,-1],"loss_changes":[1.181945E0,2.0080319E-1,0E0,0E0,0E0],"parents":[2147483647,0,0,1,1],"right_children":[2,4,-1,-1,-1],"split_conditions":[-1.351895E-1,-6.8603027E-1,1.8992435E-2,-2.0652968E-2,-6.131029E-4],"split_indices":[3,3,0,0,0],"split_type":[0,0,0,0,0],"sum_hessian":[6.865622E0,4.004478E0,2.8611445E0,2.003598E0,2.0008798E0],"tree_param":{"num_deleted":"0","num_feature":"7","num_nodes":"5","size_leaf_vector":"1"}},{"base_weights":[3.492331E-2,-1.5319958E-2,1.73403E-2],"categories":[],"categories_nodes":[],"categories_segments":[],"categories_sizes":[],"default_left":[0,0,0],"id":94,"left_children":[1,-1,-1],"loss_changes":[1.2448624E0,0E0,0E0],"parents":[2147483647,0,0],"right_children":[2,-1,-1],"split_conditions":[-4.115219E-1,-1.5319958E-2,1.73403E-2],"split_indices":[1,0,0],"split_type":[0,0,0],"sum_hessian":[7.697655E0,3.6921513E0,4.0055037E0],"tree_param":{"num_deleted":"0","num_feature":"7","num_nodes":"3","size_leaf_vector":"1"}},{"base_weights":[1.2621391E-1,-1.0738588E-2,2.2676393E-2],"categories":[],"categories_nodes":[],"categories_segments":[],"categories_sizes":[],"default_left":[0,0,0],"id":95,"left_children":[1,-1,-1],"loss_changes":[1.198644E0,0E0,0E0],"parents":[2147483647,0,0],"right_children":[2,-1,-1],"split_conditions":[-1.351895E-1,-1.0738588E-2,2.2676393E-2],"split_indices":[3,0,0],"split_type":[0,0,0],"sum_hessian":[6.994173E0,3.7623467E0,3.2318263E0],"tree_param":{"num_deleted":"0","num_feature":"7","num_nodes":"3","size_leaf_vector":"1"}},{"base_weights":[-7.6862476E-3,-2.968182E-1,2.26702E-2,-2.9524375E-2,4.42835E-3],"categories":[],"categories_nodes":[],"categories_segments":[],"categories_sizes":[],"default_left":[0,0,0,0,0],"id":96,"left_children":[1,3,-1,-1,-1],"loss_changes":[1.541033E0,9.0500224E-1,0E0,0E0,0E0],"parents":[2147483647,0,0,1,1],"right_children":[2,4,-1,-1,-1],"split_conditions":[-1.24267854E-1,1.7175317E-2,2.26702E-2,-2.9524375E-2,4.42835E-3],"split_indices":[1,6,0,0,0],"split_type":[0,0,0,0,0],"sum_hessian":[7.5403147E0,5.0722437E0,2.4680712E0,2.2745788E0,2.7976646E0],"tree_param":{"num_deleted":"0","num_feature":"7","num_nodes":"5","size_leaf_vector":"1"}},{"base_weights":[3.7486681E-3,-2.3544626E-1,2.0882571E-2,8.8949865E-3,-2.7076526E-2],"categories":[],"categories_nodes":[],"categories_segments":[],"categories_sizes":[],"default_left":[0,0,0,0,0],"id":97,"left_children":[1,3,-1,-1,-1],"loss_changes":[1.1490372E0,1.125803E0,0E0,0E0,0E0],"parents":[2147483647,0,0,1,1],"right_children":[2,4,-1,-1,-1],"split_conditions":[-1.24267854E-1,-2.1459149E-1,2.0882571E-2,8.8949865E-3,-2.7076526E-2],"split_indices":[1,4,0,0,0],"split_type":[0,0,0,0,0],"sum_hessian":[7.619548E0,5.3754053E0,2.2441425E0,2.6433363E0,2.7320693E0],"tree_param":{"num_deleted":"0","num_feature":"7","num_nodes":"5","size_leaf_vector":"1"}},{"base_weights":[1.4028178E-1,-1.0993414E-2,2.3820033E-2],"categories":[],"categories_nodes":[],"categories_segments":[],"categories_sizes":[],"default_left":[0,0,0],"id":98,"left_children":[1,-1,-1],"loss_changes":[1.228796E0,0E0,0E0],"parents":[2147483647,0,0],"right_children":[2,-1,-1],"split_conditions":[-3.641892E-1,-1.0993414E-2,2.3820033E-2],"split_indices":[1,0,0],"split_type":[0,0,0],"sum_hessian":[6.420306E0,3.4332817E0,2.9870248E0],"tree_param":{"num_deleted":"0","num_feature":"7","num_nodes":"3","size_leaf_vector":"1"}},{"base_weights":[-1.1881083E-2,-2.7013385E-1,2.0700006E-2,-2.3049382E-2,1.9832253E-3],"categories":[],"categories_nodes":[],"categories_segments":[],"categories_sizes":[],"default_left":[0,0,0,0,0],"id":99,"left_children":[1,3,-1,-1,-1],"loss_changes":[1.2400993E0,4.482795E-1,0E0,0E0,0E0],"parents":[2147483647,0,0,1,1],"right_children":[2,4,-1,-1,-1],"split_conditions":[3.5749403E-1,-3.641892E-1,2.0700006E-2,-2.3049382E-2,1.9832253E-3],"split_indices":[6,1,0,0,0],"split_type":[0,0,0,0,0],"sum_hessian":[7.241517E0,4.963239E0,2.2782779E0,2.467232E0,2.4960072E0],"tree_param":{"num_deleted":"0","num_feature":"7","num_nodes":"5","size_leaf_vector":"1"}}]},"name":"gbtree"},"learner_model_param":{"base_score":"[5E-1]","boost_from_average":"1","num_class":"0","num_feature":"7","num_target":"1"},"objective":{"name":"binary:logistic","reg_loss_param":{"scale_pos_weight":"0.711340189"}}},"version":[3,2,0]}